<?xml version="1.0"?>
<opencv_storage>
<cascade>
  <stageType>BOOST</stageType>
  <featureType>HAAR</featureType>
  <height>24</height>
  <width>32</width>
  <stageParams>
    <boostType>GAB</boostType>
    <minHitRate>9.9500000476837158e-01</minHitRate>
    <maxFalseAlarm>5.0000000000000000e-01</maxFalseAlarm>
    <weightTrimRate>9.4999999999999996e-01</weightTrimRate>
    <maxDepth>1</maxDepth>
    <maxWeakCount>100</maxWeakCount></stageParams>
  <featureParams>
    <maxCatCount>0</maxCatCount>
    <featSize>1</featSize>
    <mode>BASIC</mode></featureParams>
  <stageNum>8</stageNum>
  <stages>
    <!-- stage 0 -->
    <_>
      <maxWeakCount>2</maxWeakCount>
      <stageThreshold>-1.2930050492286682e-01</stageThreshold>
      <weakClassifiers>
        <_>
          <internalNodes>
            0 -1 5 -1.6092326492071152e-02</internalNodes>
          <leafValues>
            8.6167144775390625e-01 -8.8908767700195312e-01</leafValues></_>
        <_>
          <internalNodes>
            0 -1 20 -1.2891061487607658e-04</internalNodes>
          <leafValues>
            7.5978714227676392e-01 -9.7408920526504517e-01</leafValues></_></weakClassifiers></_>
    <!-- stage 1 -->
    <_>
      <maxWeakCount>2</maxWeakCount>
      <stageThreshold>-1.1805814504623413e-01</stageThreshold>
      <weakClassifiers>
        <_>
          <internalNodes>
            0 -1 9 -1.1576334945857525e-02</internalNodes>
          <leafValues>
            8.9515328407287598e-01 -8.5738539695739746e-01</leafValues></_>
        <_>
          <internalNodes>
            0 -1 16 4.1262863669544458e-04</internalNodes>
          <leafValues>
            -9.5311963558197021e-01 7.3932725191116333e-01</leafValues></_></weakClassifiers></_>
    <!-- stage 2 -->
    <_>
      <maxWeakCount>3</maxWeakCount>
      <stageThreshold>-6.8898940086364746e-01</stageThreshold>
      <weakClassifiers>
        <_>
          <internalNodes>
            0 -1 6 2.4266827851533890e-02</internalNodes>
          <leafValues>
            -5.7162344455718994e-01 9.4463670253753662e-01</leafValues></_>
        <_>
          <internalNodes>
            0 -1 18 -7.5176032260060310e-03</internalNodes>
          <leafValues>
            6.9431716203689575e-01 -8.9793360233306885e-01</leafValues></_>
        <_>
          <internalNodes>
            0 -1 0 3.5956643521785736e-02</internalNodes>
          <leafValues>
            -5.7510000467300415e-01 7.8056764602661133e-01</leafValues></_></weakClassifiers></_>
    <!-- stage 3 -->
    <_>
      <maxWeakCount>4</maxWeakCount>
      <stageThreshold>-4.0980741381645203e-01</stageThreshold>
      <weakClassifiers>
        <_>
          <internalNodes>
            0 -1 22 -5.3121144883334637e-03</internalNodes>
          <leafValues>
            7.9113298654556274e-01 -6.8888890743255615e-01</leafValues></_>
        <_>
          <internalNodes>
            0 -1 12 9.9355019629001617e-03</internalNodes>
          <leafValues>
            -7.1326309442520142e-01 7.1176868677139282e-01</leafValues></_>
        <_>
          <internalNodes>
            0 -1 11 -6.4529515802860260e-02</internalNodes>
          <leafValues>
            4.5675647258758545e-01 -9.5240205526351929e-01</leafValues></_>
        <_>
          <internalNodes>
            0 -1 4 -2.1408502012491226e-02</internalNodes>
          <leafValues>
            5.3558808565139771e-01 -7.5616914033889771e-01</leafValues></_></weakClassifiers></_>
    <!-- stage 4 -->
    <_>
      <maxWeakCount>3</maxWeakCount>
      <stageThreshold>-6.3081479072570801e-01</stageThreshold>
      <weakClassifiers>
        <_>
          <internalNodes>
            0 -1 1 3.5717848688364029e-02</internalNodes>
          <leafValues>
            -5.9402984380722046e-01 8.5806453227996826e-01</leafValues></_>
        <_>
          <internalNodes>
            0 -1 13 -5.2625695243477821e-03</internalNodes>
          <leafValues>
            6.8585073947906494e-01 -6.5711230039596558e-01</leafValues></_>
        <_>
          <internalNodes>
            0 -1 3 -3.9712429046630859e-02</internalNodes>
          <leafValues>
            6.2032735347747803e-01 -6.5518480539321899e-01</leafValues></_></weakClassifiers></_>
    <!-- stage 5 -->
    <_>
      <maxWeakCount>2</maxWeakCount>
      <stageThreshold>-6.2485240399837494e-02</stageThreshold>
      <weakClassifiers>
        <_>
          <internalNodes>
            0 -1 7 2.8329607099294662e-02</internalNodes>
          <leafValues>
            -5.7142859697341919e-01 8.8888889551162720e-01</leafValues></_>
        <_>
          <internalNodes>
            0 -1 21 -7.5293373083695769e-04</internalNodes>
          <leafValues>
            5.9787905216217041e-01 -9.5137411355972290e-01</leafValues></_></weakClassifiers></_>
    <!-- stage 6 -->
    <_>
      <maxWeakCount>4</maxWeakCount>
      <stageThreshold>-2.7606812119483948e-01</stageThreshold>
      <weakClassifiers>
        <_>
          <internalNodes>
            0 -1 2 2.9019385576248169e-02</internalNodes>
          <leafValues>
            -5.1396650075912476e-01 8.6877828836441040e-01</leafValues></_>
        <_>
          <internalNodes>
            0 -1 15 -9.0484987595118582e-05</internalNodes>
          <leafValues>
            5.0181484222412109e-01 -8.8322377204895020e-01</leafValues></_>
        <_>
          <internalNodes>
            0 -1 14 -1.8075087573379278e-03</internalNodes>
          <leafValues>
            -9.7222018241882324e-01 3.5867998003959656e-01</leafValues></_>
        <_>
          <internalNodes>
            0 -1 10 -1.3804122805595398e-01</internalNodes>
          <leafValues>
            7.6244217157363892e-01 -5.1243376731872559e-01</leafValues></_></weakClassifiers></_>
    <!-- stage 7 -->
    <_>
      <maxWeakCount>3</maxWeakCount>
      <stageThreshold>2.5058534741401672e-01</stageThreshold>
      <weakClassifiers>
        <_>
          <internalNodes>
            0 -1 8 8.9728847146034241e-02</internalNodes>
          <leafValues>
            -4.3009319901466370e-01 8.5159009695053101e-01</leafValues></_>
        <_>
          <internalNodes>
            0 -1 17 -8.0257465015165508e-05</internalNodes>
          <leafValues>
            4.8820373415946960e-01 -9.6400141716003418e-01</leafValues></_>
        <_>
          <internalNodes>
            0 -1 19 1.2928307114634663e-04</internalNodes>
          <leafValues>
            -9.9136179685592651e-01 3.6299666762351990e-01</leafValues></_></weakClassifiers></_></stages>
  <features>
    <_>
      <rects>
        <_>
          0 8 9 8 -1.</_>
        <_>
          3 8 3 8 3.</_></rects>
      <tilted>0</tilted></_>
    <_>
      <rects>
        <_>
          0 14 15 6 -1.</_>
        <_>
          5 14 5 6 3.</_></rects>
      <tilted>0</tilted></_>
    <_>
      <rects>
        <_>
          0 18 21 2 -1.</_>
        <_>
          7 18 7 2 3.</_></rects>
      <tilted>0</tilted></_>
    <_>
      <rects>
        <_>
          1 2 10 12 -1.</_>
        <_>
          1 2 5 6 2.</_>
        <_>
          6 8 5 6 2.</_></rects>
      <tilted>0</tilted></_>
    <_>
      <rects>
        <_>
          4 6 6 11 -1.</_>
        <_>
          7 6 3 11 2.</_></rects>
      <tilted>0</tilted></_>
    <_>
      <rects>
        <_>
          4 8 6 9 -1.</_>
        <_>
          7 8 3 9 2.</_></rects>
      <tilted>0</tilted></_>
    <_>
      <rects>
        <_>
          4 15 10 6 -1.</_>
        <_>
          4 15 5 3 2.</_>
        <_>
          9 18 5 3 2.</_></rects>
      <tilted>0</tilted></_>
    <_>
      <rects>
        <_>
          4 16 14 6 -1.</_>
        <_>
          4 16 7 3 2.</_>
        <_>
          11 19 7 3 2.</_></rects>
      <tilted>0</tilted></_>
    <_>
      <rects>
        <_>
          7 0 14 9 -1.</_>
        <_>
          7 3 14 3 3.</_></rects>
      <tilted>0</tilted></_>
    <_>
      <rects>
        <_>
          7 5 4 6 -1.</_>
        <_>
          7 8 4 3 2.</_></rects>
      <tilted>0</tilted></_>
    <_>
      <rects>
        <_>
          8 3 8 18 -1.</_>
        <_>
          8 9 8 6 3.</_></rects>
      <tilted>0</tilted></_>
    <_>
      <rects>
        <_>
          8 3 18 16 -1.</_>
        <_>
          8 11 18 8 2.</_></rects>
      <tilted>0</tilted></_>
    <_>
      <rects>
        <_>
          10 1 2 9 -1.</_>
        <_>
          10 4 2 3 3.</_></rects>
      <tilted>0</tilted></_>
    <_>
      <rects>
        <_>
          11 6 12 1 -1.</_>
        <_>
          15 6 4 1 3.</_></rects>
      <tilted>0</tilted></_>
    <_>
      <rects>
        <_>
          14 10 5 4 -1.</_>
        <_>
          14 12 5 2 2.</_></rects>
      <tilted>0</tilted></_>
    <_>
      <rects>
        <_>
          14 11 2 2 -1.</_>
        <_>
          14 12 2 1 2.</_></rects>
      <tilted>0</tilted></_>
    <_>
      <rects>
        <_>
          15 10 2 2 -1.</_>
        <_>
          15 11 2 1 2.</_></rects>
      <tilted>0</tilted></_>
    <_>
      <rects>
        <_>
          15 11 3 2 -1.</_>
        <_>
          15 12 3 1 2.</_></rects>
      <tilted>0</tilted></_>
    <_>
      <rects>
        <_>
          16 2 3 8 -1.</_>
        <_>
          16 6 3 4 2.</_></rects>
      <tilted>0</tilted></_>
    <_>
      <rects>
        <_>
          16 11 2 3 -1.</_>
        <_>
          16 12 2 1 3.</_></rects>
      <tilted>0</tilted></_>
    <_>
      <rects>
        <_>
          16 12 1 2 -1.</_>
        <_>
          16 13 1 1 2.</_></rects>
      <tilted>0</tilted></_>
    <_>
      <rects>
        <_>
          17 10 4 5 -1.</_>
        <_>
          19 10 2 5 2.</_></rects>
      <tilted>0</tilted></_>
    <_>
      <rects>
        <_>
          18 6 6 6 -1.</_>
        <_>
          18 6 3 3 2.</_>
        <_>
          21 9 3 3 2.</_></rects>
      <tilted>0</tilted></_></features></cascade>
</opencv_storage>
