<?xml version="1.0"?>
<opencv_storage>
<stage14>
  <maxWeakCount>6</maxWeakCount>
  <stageThreshold>-7.9986238479614258e-01</stageThreshold>
  <weakClassifiers>
    <_>
      <internalNodes>
        0 -1 1479217 -2.0546605810523033e-02</internalNodes>
      <leafValues>
        -6.7398118972778320e-01 4.8009368777275085e-01</leafValues></_>
    <_>
      <internalNodes>
        0 -1 2331665 4.3107257224619389e-03</internalNodes>
      <leafValues>
        -3.6786687374114990e-01 5.1926600933074951e-01</leafValues></_>
    <_>
      <internalNodes>
        0 -1 1406781 -1.7707407823763788e-04</internalNodes>
      <leafValues>
        -8.9770638942718506e-01 2.4041649699211121e-01</leafValues></_>
    <_>
      <internalNodes>
        0 -1 15267 5.0253838300704956e-01</internalNodes>
      <leafValues>
        -2.5397521257400513e-01 8.2394909858703613e-01</leafValues></_>
    <_>
      <internalNodes>
        0 -1 2341681 2.2860406897962093e-04</internalNodes>
      <leafValues>
        -5.4943597316741943e-01 3.3175972104072571e-01</leafValues></_>
    <_>
      <internalNodes>
        0 -1 1914572 7.1647122967988253e-04</internalNodes>
      <leafValues>
        -2.5657406449317932e-01 8.0498039722442627e-01</leafValues></_></weakClassifiers></stage14>
</opencv_storage>
