<?xml version="1.0"?>
<opencv_storage>
<stage6>
  <maxWeakCount>5</maxWeakCount>
  <stageThreshold>-6.5450710058212280e-01</stageThreshold>
  <weakClassifiers>
    <_>
      <internalNodes>
        0 -1 2105059 -8.7148621678352356e-03</internalNodes>
      <leafValues>
        8.3568072319030762e-01 -4.1711229085922241e-01</leafValues></_>
    <_>
      <internalNodes>
        0 -1 838126 5.4540723562240601e-02</internalNodes>
      <leafValues>
        -5.4420161247253418e-01 5.8236986398696899e-01</leafValues></_>
    <_>
      <internalNodes>
        0 -1 2010802 1.0029589757323265e-03</internalNodes>
      <leafValues>
        -6.0054922103881836e-01 4.4239920377731323e-01</leafValues></_>
    <_>
      <internalNodes>
        0 -1 2190517 3.2402314245700836e-02</internalNodes>
      <leafValues>
        -4.4645875692367554e-01 6.1488080024719238e-01</leafValues></_>
    <_>
      <internalNodes>
        0 -1 1470524 1.0475956369191408e-03</internalNodes>
      <leafValues>
        -9.9143767356872559e-01 3.1086641550064087e-01</leafValues></_></weakClassifiers></stage6>
</opencv_storage>
